digraph Tree {
node [shape=box] ;
0 [label="odor_5 <= 0.5\ngini = 0.5\nsamples = 5686\nvalue = [2929, 2757]\nclass = edible"] ;
1 [label="bruises?_1 <= 0.5\ngini = 0.287\nsamples = 3237\nvalue = [563, 2674]\nclass = poisonous"] ;
0 -> 1 [labeldistance=2.5, labelangle=45, headlabel="True"] ;
2 [label="gini = 0.0\nsamples = 2307\nvalue = [0, 2307]\nclass = poisonous"] ;
1 -> 2 ;
3 [label="spore-print-color_1 <= 0.5\ngini = 0.478\nsamples = 930\nvalue = [563, 367]\nclass = edible"] ;
1 -> 3 ;
4 [label="odor_6 <= 0.5\ngini = 0.357\nsamples = 734\nvalue = [563, 171]\nclass = edible"] ;
3 -> 4 ;
5 [label="gini = 0.0\nsamples = 563\nvalue = [563, 0]\nclass = edible"] ;
4 -> 5 ;
6 [label="gini = 0.0\nsamples = 171\nvalue = [0, 171]\nclass = poisonous"] ;
4 -> 6 ;
7 [label="gini = 0.0\nsamples = 196\nvalue = [0, 196]\nclass = poisonous"] ;
3 -> 7 ;
8 [label="spore-print-color_5 <= 0.5\ngini = 0.065\nsamples = 2449\nvalue = [2366, 83]\nclass = edible"] ;
0 -> 8 [labeldistance=2.5, labelangle=-45, headlabel="False"] ;
9 [label="stalk-surface-below-ring_3 <= 0.5\ngini = 0.028\nsamples = 2400\nvalue = [2366, 34]\nclass = edible"] ;
8 -> 9 ;
10 [label="cap-shape_1 <= 0.5\ngini = 0.003\nsamples = 2360\nvalue = [2356, 4]\nclass = edible"] ;
9 -> 10 ;
11 [label="gill-size_1 <= 0.5\ngini = 0.002\nsamples = 2358\nvalue = [2356, 2]\nclass = edible"] ;
10 -> 11 ;
12 [label="gini = 0.0\nsamples = 2220\nvalue = [2220, 0]\nclass = edible"] ;
11 -> 12 ;
13 [label="gini = 0.029\nsamples = 138\nvalue = [136, 2]\nclass = edible"] ;
11 -> 13 ;
14 [label="gini = 0.0\nsamples = 2\nvalue = [0, 2]\nclass = poisonous"] ;
10 -> 14 ;
15 [label="ring-number_2 <= 0.5\ngini = 0.375\nsamples = 40\nvalue = [10, 30]\nclass = poisonous"] ;
9 -> 15 ;
16 [label="gini = 0.0\nsamples = 30\nvalue = [0, 30]\nclass = poisonous"] ;
15 -> 16 ;
17 [label="gini = 0.0\nsamples = 10\nvalue = [10, 0]\nclass = edible"] ;
15 -> 17 ;
18 [label="gini = 0.0\nsamples = 49\nvalue = [0, 49]\nclass = poisonous"] ;
8 -> 18 ;
}